{"input_nodes":3,"hidden_nodes":8,"output_nodes":2,"weights_ih":{"rows":8,"cols":3,"data":[[0.608683012561559,-0.648854732670106,0.703561301573798],[0.1311391917364686,-0.056340970700566206,-0.5476681554731027],[0.1102328384330935,-0.8071435445476474,-0.4404955067855427],[0.8415658179484384,-0.47999840313162423,-0.5553371095754684],[-0.5857966016418485,-0.6464214981340914,0.00047423284663228316],[-0.20813824946608328,0.6135072762186637,-0.5484409866547253],[0.3607404600195028,-0.10983954853819755,0.9798890357044838],[-0.7698419607988756,0.4419890195866927,0.1878207816531008]]},"weights_ho":{"rows":2,"cols":8,"data":[[-0.12046234884116247,-0.4009462110017967,0.6748674263532459,0.2168835192506986,0.14205274185476924,-0.5682989169060435,-0.8710198755866587,-0.19468705466909908],[0.22961659466142192,0.1605167522426303,-0.010590960508269909,-0.8120167414641415,0.5421529435315691,-0.3302467533300719,-0.9915758110967849,0.30126112099545166]]},"bias_h":{"rows":8,"cols":1,"data":[[-0.7213702676803537],[0.7556353590246769],[0.08816242536667485],[-0.2126004994458759],[0.5838935198328232],[-0.3238946092331676],[-0.9331129489811159],[0.7763775024482205]]},"bias_o":{"rows":2,"cols":1,"data":[[-0.1893213804527667],[-0.6423758985827952]]},"learning_rate":0.1,"activation_function":{}}